tree
version=v4
num_class=1
num_tree_per_iteration=1
label_index=0
max_feature_idx=76
objective=binary sigmoid:1
feature_names=amt zip lat long city_pop unix_time merch_lat merch_long amt_month amt_year amt_month_shopping_net_spend count_month_shopping_net dist_between_client_and_merch trans_month trans_day hour year times_shopped_at_merchant times_shopped_at_merchant_year times_shopped_at_merchant_month times_shopped_at_merchant_day day_of_week is_weekend is_high_risk_hour distance_norm distance_bin time_since_last_tx distance_from_last_location implied_speed suspicious_speed avg_amt_by_cc amt_diff_from_avg high_value_tx avg_amt_by_cc_category amt_diff_from_category_avg high_value_category_tx first_time_tx_ratio avg_amt_first_time avg_amt_repeated first_time_amt_ratio city_distance out_of_city merchant_fraud_rate category_fraud_rate night_tx night_category_risk distance_high_risk_hour high_amt_high_risk_hour first_time_high_risk_hour risk_score night_risk_score age days_since_first_tx category_food_dining category_gas_transport category_grocery_net category_grocery_pos category_health_fitness category_home category_kids_pets category_misc_net category_misc_pos category_personal_care category_shopping_net category_shopping_pos category_travel gender_M first_time_at_merchant_1 day_part_noche age_segment_35-50 age_segment_50-65 age_segment_<25 age_segment_>65 category_simplified_food category_simplified_grocery category_simplified_misc category_simplified_travel
feature_infos=[1:26544.119999999999] [1257:99783] [20.027100000000001:66.693299999999994] [-165.67230000000001:-67.950299999999999] [23:2906700] [1325376248:1385855985] [19.04232:67.510266999999999] [-166.661968:-66.952026000000004] [1.01:35682.669999999998] [1.3100000000000001:185464.69] [0:12047.18] [0:31] [0.14797460719216679:148.62367168088687] [1:11] [0:6] [0:23] [2019:2020] [1:28] [1:17] [1:7] [1:9] [0:6] [0:1] [0:1] [0.00097436202573210004:0.97863589272907126] [1:6] [0:290.46944444444443] none none none [45.906378525932666:859.88199999999995] [0.010315231316578599:302.77724461271617] [0:1] [4.1247619047619049:1442.0833333333333] [0.0016087724326673001:84.978186782078538] [0:1] [0.15379341864716631:1] [0:859.88199999999995] [0:890.87] none [0.14808812526195719:148.85254647502694] [0:1] [0:0.021754894851341501] [0.0015095509697845:0.015927132828986001] [0:1] [0.0048209789350856002:0.042390986574313498] [0:0.97863589272907126] [0:1] [0:1] [0.0013256405691080999:0.63678173985560793] [0:0.63678173985560793] [20:100] [0:699] [0:1] [0:1] [0:1] [0:1] [0:1] [0:1] [0:1] [0:1] [0:1] [0:1] [0:1] [0:1] [0:1] [0:1] [0:1] [0:1] [0:1] [0:1] [0:1] [0:1] [0:1] [0:1] [0:1] [0:1]
tree_sizes=3458 3456 3443 3452 3479 3461 3474 3484 3458 3488 3463

Tree=0
num_leaves=31
num_cat=0
split_feature=31 30 10 46 31 54 43 45 31 46 15 31 35 42 35 35 30 26 65 31 45 45 31 31 43 26 46 30 11 11
split_gain=7.23128e+06 1.80013e+06 1.10389e+06 396959 313538 1.01179e+06 268440 208168 179943 154514 133662 120477 100350 73669.4 66400 56018.5 62651.3 50876.2 50104.8 46096.9 42887.7 37317.3 69750.3 30112.6 27450.2 23213.8 22015.1 17350.2 16411.9 15534.1
threshold=2.9223974051299408 107.25208386086858 881.73000000000013 1.0000000180025095e-35 0.40971196302204405 1.0000000180025095e-35 0.0052247508550124508 0.0056934219704505009 0.41938970557506178 1.0000000180025095e-35 21.500000000000004 0.1617843028336122 1.0000000180025095e-35 0.006870800483394451 1.0000000180025095e-35 1.0000000180025095e-35 91.043613476208151 1.201527777777778 1.0000000180025095e-35 0.30000013057525293 0.0065874633819129015 0.0075731150310221007 7.9182717966294076 0.073701683718175412 0.0017239201800185503 9.6237500000000029 0.093044859032850313 84.371214393622623 3.5000000000000004 7.5000000000000009
decision_type=2 2 2 2 2 2 2 2 2 2 2 2 2 2 2 2 2 10 2 2 2 2 2 2 2 10 2 2 2 2
left_child=1 2 4 28 5 7 8 19 23 13 27 -12 17 25 -8 -6 20 -10 21 -1 26 22 -11 -5 -14 -2 -17 -9 -4 -25
right_child=9 -3 3 6 15 -7 14 10 12 18 11 -13 24 -15 -16 16 -18 -19 -20 -21 -22 -23 -24 29 -26 -27 -28 -29 -30 -31
leaf_value=-2.2897507928688139 -4.1842598031212974 -1.9797554241908757 -3.5898275585790183 -3.2866945050424192 -4.3842511121456749 -1.9648081681588576 -4.4163971764852077 -4.4140270824294348 -2.9960528084659535 -4.4149104434276971 -4.1921824722674437 -3.3723545581989178 -2.1725818079718628 -2.4761112329074648 -2.3551117423767018 -4.4141551301081323 -2.65585354404468 -4.107437429879953 -4.4129513878344655 -4.4138532358003344 -4.3275829120856715 -1.9993576232054999 -2.1789209578760924 -2.0818755789568932 -4.1281217920911786 -3.0605873652249658 -2.9293810288844755 -4.0787325173667242 -4.2717359714956027 -2.5458554917305976
leaf_weight=67.012790150940418 40.595255337655544 458.97366416826844 36.930500838905573 26.755611937493086 2449.0718563534319 227.09881439059973 99.186953980475664 903.09244991093874 58.40648927539587 17.338593497872353 353.38471508398652 296.77732614055276 67.758420936763287 123.23085675388575 15.382957302033899 11.959744114428757 30.501679092645645 100.40820868685842 7.8315075673162928 10.599854428321121 161.54900352284312 3151.1211946569383 44.254739843308926 366.55678814649582 7.4472472704946986 27.460537493228912 34.674203515052795 163.11520723253489 198.69238451123238 113.68883694708347
leaf_count=758 3026 902 2010 1172 199086 294 8169 74299 2033 1428 26486 14206 502 2214 156 985 687 7238 645 873 12829 8692 312 1940 534 992 1110 11609 15412 2301
internal_value=-3.18052 -3.78636 -3.92971 -3.0704 -4.12908 -3.84688 -2.77042 -4.08635 -2.56171 -2.0696 -4.15564 -3.81697 -3.25759 -2.91223 -4.12448 -4.34141 -3.9037 -3.69255 -2.02003 -2.57655 -4.09393 -2.01418 -2.7988 -2.24337 -2.36026 -3.71818 -3.30282 -4.36249 -4.16193 -2.18765
internal_weight=9670.86 6259.03 5800.05 1091.21 4708.84 2021.08 855.592 1793.98 741.022 3411.83 1716.37 650.162 234.02 191.287 114.57 2687.76 238.685 158.815 3220.55 77.6126 208.183 3212.71 61.5933 507.001 75.2057 68.0558 46.6339 1066.21 235.623 480.246
internal_count=402900 385591 384689 41467 343222 128525 24045 128231 15720 17309 126600 40692 10307 6232 8325 214697 15611 9271 11077 1631 14924 10432 1740 5413 1036 4018 2095 85908 17422 4241
is_linear=0
shrinkage=1


Tree=1
num_leaves=31
num_cat=0
split_feature=23 0 0 0 0 43 61 15 62 11 45 10 45 0 43 51 53 0 59 10 0 0 51 0 53 51 76 4 35 33
split_gain=62946 66208.2 17504.8 11957.3 74395.9 24685.4 20960.6 35186.3 18446.4 13898.9 12702.6 36679.2 19955.3 12944.6 12555.9 11715.4 11028 39088.5 10620.7 9808.23 9533.12 9730.83 9413.79 8715.82 8715.12 8502.84 8063.66 6265.33 5902.37 14764.4
threshold=1.0000000180025095e-35 247.02000000000001 5.8550000000000013 24.525000000000002 103.24500000000002 0.0052247508550124508 1.0000000180025095e-35 21.500000000000004 1.0000000180025095e-35 1.5000000000000002 0.0087775384766758512 863.5150000000001 0.0075731150310221007 17.505000000000006 0.0024605043767564508 54.500000000000007 1.0000000180025095e-35 211.52500000000003 1.0000000180025095e-35 1921.9450000000004 24.525000000000002 7.4450000000000012 54.500000000000007 44.795000000000009 1.0000000180025095e-35 54.500000000000007 1.0000000180025095e-35 2207.0000000000005 1.0000000180025095e-35 85.527756844792691
decision_type=2 2 2 2 2 2 2 2 2 2 2 2 2 2 2 2 2 2 2 2 2 2 2 2 2 2 2 2 2 2
left_child=1 19 18 5 6 10 8 -8 -5 22 12 13 24 14 -12 -10 17 -6 26 -1 21 -21 -9 -17 -4 -15 -2 -28 29 -18
right_child=2 -3 3 4 16 -7 7 9 15 -11 11 -13 -14 25 -16 23 28 -19 -20 20 -22 -23 -24 -25 -26 -27 27 -29 -30 -31
leaf_value=0.0032007120370617119 -0.019485386249500452 0.31587124396185029 0.27838422423619019 -0.013288261924998218 -0.0021782093135427672 -0.030366683650678048 -0.030660044840968657 -0.019900401750285287 0.04386982566726056 0.66414861324839103 0.20261949876999566 0.27834694572927993 -0.031333149534595352 0.79571150900505039 0.70356138418506031 -0.02886377121420982 0.90778002007045433 0.24764028731750867 0.44961992586227612 -0.028414577587734427 0.016718799809134943 0.88192423753914007 2.1264491421305181 0.75675326084759031 -0.03112895229216114 0.37772006550297854 0.57138254162315361 -0.029512363832101578 0.32596380445325113 0.23760056385336598
leaf_weight=2202.7706165034324 433.07715032808483 933.12479395419359 5105.0366605520248 1522.5975461360067 574.08852578978986 228.52731432765722 81.850973983295262 2.1754841087386003 63.806346199475229 54.502376765944064 122.99158744141459 1506.4074411094189 200.63183681666851 223.55037802271545 71.227366041392088 15.938511038199065 58.082305077463388 31003.534844732843 59.114884406328201 15.162200585007666 50.581119634211063 33.372382901608944 10.189101397991179 60.236122211441398 82.998797852545977 57.977765657007694 39.070302680134773 25.420519061386585 402.22626615874469 61.227377146482468
leaf_count=156894 29347 4465 8460 105036 31070 16187 4468 171 3387 584 3902 1170 6748 1074 1803 965 614 11968 870 1028 3266 953 10 1221 2753 830 1034 1413 1099 110
internal_value=0.230421 0.102855 0.240228 0.24247 0.23482 0.276569 0.047728 0.387719 0.0170992 0.892801 0.286088 0.351202 0.262076 0.580817 0.389012 0.3454 0.245375 0.243099 0.0729508 0.0164027 0.306815 0.602641 1.77535 0.594091 0.273427 0.711283 0.0273816 0.337646 0.382485 0.568716
internal_weight=45301.5 3235.01 42066.5 41509.8 33910.5 7599.35 1811.3 148.718 1662.58 66.867 7370.82 1982.15 5388.67 475.747 194.219 139.981 32099.2 31577.6 556.683 2301.89 99.1157 48.5346 12.3646 76.1746 5188.04 281.528 497.568 64.4908 521.536 119.31
internal_count=402900 166606 236294 203630 160703 42927 115842 5233 110609 765 26740 8779 17961 7609 5705 5573 44861 43038 32664 162141 5247 1981 181 2186 11213 1904 31794 2447 1823 724
is_linear=0
shrinkage=0.03


Tree=2
num_leaves=31
num_cat=0
split_feature=23 0 0 26 0 0 53 43 10 0 45 59 58 0 45 34 10 51 26 76 54 26 4 42 62 0 15 1 10 34
split_gain=39289.8 42995.1 11172 7865.61 11983 45190.4 14193.9 9188.13 7226.83 7098.01 6842.16 6423.38 5785.83 5544.65 5513.96 4617.04 4532.1 6946.73 4417.29 3592.81 3813.92 3684.84 3375.39 3408.07 3288.23 2920.36 2889.12 3325.3 2805.75 2605.99
threshold=1.0000000180025095e-35 247.02000000000001 6.6350000000000007 1.3587500000000003 230.71500000000003 25.215000000000003 1.0000000180025095e-35 0.0052247508550124508 968.72000000000014 24.525000000000002 0.0075731150310221007 1.0000000180025095e-35 1.0000000180025095e-35 94.77500000000002 0.0073229187888383509 0.098286376537858919 1035.0600000000002 57.500000000000007 17.932500000000001 1.0000000180025095e-35 1.0000000180025095e-35 0.84319444444444458 567.00000000000011 0.0022812604015217002 1.0000000180025095e-35 20.295000000000005 21.500000000000004 99534.500000000015 968.72000000000014 3.2092214031735673
decision_type=2 2 2 10 2 2 2 2 2 2 2 2 2 2 2 2 2 2 10 2 2 8 2 2 2 2 2 2 2 2
left_child=1 8 11 14 5 7 26 12 -1 10 22 19 18 -8 15 16 17 -4 -5 20 -2 -21 23 -10 -16 -12 -7 -28 -3 -11
right_child=2 28 3 4 -6 6 13 -9 9 29 25 -13 -14 -15 24 -17 -18 -19 -20 21 -22 -23 -24 -25 -26 -27 27 -29 -30 -31
leaf_value=-0.0057372996971499623 -0.0080705460233601103 0.18913410327940303 1.2241614817829569 0.19551219574580006 0.19698620108493878 -0.030661921263777963 -0.030377681672933237 -0.030281589335139889 -0.021964750116716742 -0.030300103187818481 0.03059869565406861 0.29019992322995858 -0.03110197130977568 0.24589736337958237 0.20057436636665624 0.24556669034707909 0.26848253889039353 0.1868846760206469 0.26358879871875496 0.39721804514927178 0.20151930582737324 0.064347619770870182 0.385209624094763 1.1155192244760728 0.27867917975905254 0.42991839581723362 0.040489932476532722 0.72829579923917753 0.28146930461420033 0.48463931733963861
leaf_weight=2026.3644285406917 525.66584385372698 605.611751800403 14.389971492812037 3614.6079161092639 15470.122791135684 1063.951323675923 80.383940860629082 150.67350349575281 2.8644920932129017 147.91261692903936 78.079213553108275 118.29872532188892 89.586469300091267 344.0780956055969 24394.396471543238 2025.9651542846113 31.01056681573391 10.016158063896 1140.8521654624492 49.580019171349704 90.765496253967285 74.552937094122171 56.897976728156209 11.6418015146628 501.14503305312246 19.962558037601411 734.71148151531816 5.3862854195758691 603.75885277986526 8.403671336360274
leaf_count=146483 33443 3690 32 13837 6710 79166 5243 10991 162 9781 4100 1015 2776 1564 28045 8874 12 18 2909 420 9 2415 1044 77 2222 282 36543 50 775 212
internal_value=0.186485 0.0901409 0.193274 0.19513 0.182074 0.150117 0.0377518 0.200224 0.0153705 0.146294 0.280195 0.0858526 0.207397 0.193621 0.206105 0.253199 0.522874 0.822698 0.211897 0.0528585 0.0230617 0.199435 0.50163 0.903781 0.202158 0.115455 0.000989757 0.0464757 0.235428 0.00026902
internal_weight=54091.6 3561.5 50530.1 49671.3 22694.4 7224.23 2228.51 4995.72 2352.13 325.762 169.446 858.863 4845.05 424.462 26976.9 2081.38 55.4167 24.4061 4755.46 740.564 616.431 124.133 71.4043 14.5063 24895.5 98.0418 1804.05 740.098 1209.37 156.316
internal_count=402900 166606 236294 198992 159789 153079 122566 30513 162141 15658 5665 37302 19522 6807 39203 8936 62 50 16746 36287 33452 2835 1283 239 30267 4382 115759 36593 4465 9993
is_linear=0
shrinkage=0.03


Tree=3
num_leaves=31
num_cat=0
split_feature=46 0 0 10 26 0 0 43 0 43 0 59 0 65 26 43 45 10 34 33 36 26 26 0 43 34 11 7 54 0
split_gain=27479.7 30888.8 7925.87 5716.74 5013.5 8810.82 32484.1 8878.85 8258.18 7682.21 4732.59 4281.48 4215.79 4100.35 2607.46 4060.57 2597.03 2611.22 3883.37 3431.92 2446.84 2417.62 2230.02 2213.93 2146.82 2749.95 2155.89 2122.9 2032.74 5606.57
threshold=1.0000000180025095e-35 247.02000000000001 5.8550000000000013 902.63000000000011 1.2620833333333332 230.71500000000003 25.215000000000003 0.0017239201800185503 94.77500000000002 0.0052247508550124508 24.525000000000002 1.0000000180025095e-35 7.4450000000000012 1.0000000180025095e-35 17.932500000000001 0.0017239201800185503 0.0073229187888383509 881.73000000000013 0.13343735988982272 77.004509013282743 0.28874196523150714 3.6190277777777777 22.678333333333338 7.1150000000000011 0.0052247508550124508 0.10125217372836585 9.5000000000000018 -97.303341999999986 1.0000000180025095e-35 20.295000000000005
decision_type=2 2 2 2 10 2 2 2 2 2 2 2 2 2 10 2 2 2 2 2 2 8 10 2 2 2 2 2 2 2
left_child=1 3 11 28 16 6 9 8 -8 14 12 13 -5 -2 15 -6 17 18 19 23 -15 -22 -16 -4 25 -14 -27 -13 -1 -30
right_child=2 -3 4 10 5 -7 7 -9 -10 -11 -12 27 24 20 22 -17 -18 -19 -20 -21 21 -23 -24 -25 -26 26 -28 -29 29 -31
leaf_value=-0.019152895438752936 -0.019233707750810621 0.18981510429845197 0.25490225625975282 -0.029973796474797903 0.057309637466753424 0.16683901677498639 -0.030587256498562958 -0.0086055517673181044 0.17674300865142012 -0.030284190117818428 -0.0025681130974616927 0.41033640164776397 0.67244449774331727 0.019594087614492991 0.24053465422954395 0.16835774284431584 0.17033849622982153 0.17868248452739297 0.22174634819261163 0.31072269494101035 0.4059211838536545 -0.028840802570385123 0.16427140419556316 0.91464854819737729 -0.029229245534426344 0.30835670686864664 -0.029298720404101388 0.13050876200424644 0.24271115142676694 -0.030266512298827555
leaf_weight=1695.3645329289138 423.13684151135385 1450.6957638561726 7.5075855534523752 53.15269186347723 320.37896744441241 18250.020316567272 247.5470771305263 1513.9997046301141 570.21200766786933 173.9915074352175 172.16220997925848 37.219629291445017 16.168107518926263 46.646980508230627 803.73361925128847 4195.5669852597639 28012.318105993792 1551.2558844890445 819.6970692705363 69.117601473815739 48.582737622782588 14.810330484993754 626.81388291716576 16.876573532819748 18.74443041998893 126.41714528761804 19.433315532281995 71.950608596205711 103.58115196228027 191.52021872531623
leaf_count=129547 29347 4465 109 3188 6136 6857 16674 103065 4563 13171 10953 246 53 1465 1023 11720 29200 1426 6840 72 284 698 2675 99 821 1245 802 624 12 15520
internal_value=0.158278 0.0806087 0.163444 0.0144501 0.164622 0.155099 0.129733 0.0344279 0.114017 0.16603 0.116886 0.058527 0.204455 0.0232949 0.171778 0.160495 0.172959 0.202667 0.243166 0.42658 0.185557 0.305432 0.207259 0.729683 0.27319 0.30816 0.263453 0.228797 -0.00649481 0.0660351
internal_weight=61668.6 3847.24 57821.4 2396.54 57179 26702.3 8452.24 2331.76 817.759 6120.48 406.078 642.347 233.916 533.177 5946.49 4515.95 30476.8 2464.45 913.199 93.5018 110.04 63.3931 1430.55 24.3842 180.763 162.019 145.85 109.17 1990.47 295.101
internal_count=402900 166606 236294 162141 203630 165884 159027 124302 21237 34725 17062 32664 6109 31794 21554 17856 37746 8546 7120 280 2447 982 3698 208 2921 2100 2047 870 145079 15532
is_linear=0
shrinkage=0.03


Tree=4
num_leaves=31
num_cat=0
split_feature=23 31 36 10 43 49 31 45 43 10 42 31 31 30 38 36 10 43 43 10 56 31 43 42 42 26 42 31 31 43
split_gain=20421.1 18503.3 6371.96 5282.92 7315.79 5780.81 11160.1 6195.09 5162.37 4239.29 3832.3 3283.64 3016.91 2874.44 2411.66 2400.85 2165.25 2073.47 1763.09 1675.99 1802.64 3358.42 2035.62 1771.16 1654.93 2564.68 1552.52 2061.24 1503.48 4369.42
threshold=1.0000000180025095e-35 3.4194828979455703 0.58683876693185655 806.2700000000001 0.014482859551034103 0.26972104637558553 0.41938970557506178 0.0068905209561285008 0.0052247508550124508 902.63000000000011 0.0018646296274662502 0.79041038426197108 0.38195991552174074 85.762394695324829 86.820656029571367 0.61382042916185475 737.83500000000015 0.0052247508550124508 0.0015099333556320002 902.63000000000011 1.0000000180025095e-35 7.9182717966294076 0.0015392226153641002 0.0066245491308939506 0.0018945376060031003 0.98791666666666678 0.0034384755477846001 0.34561038638647962 0.28978046185047929 0.0034623242617849502
decision_type=2 2 2 2 2 2 2 2 2 2 2 2 2 2 2 2 2 2 2 2 2 2 2 2 2 10 2 2 2 2
left_child=1 2 9 4 5 6 8 11 10 -1 13 -8 17 -2 -13 -9 -6 26 -12 20 21 22 -3 -21 25 -7 27 -11 29 -26
right_child=3 19 -4 -5 16 24 7 15 -10 12 18 14 -14 -15 -16 -17 -18 -19 -20 23 -22 -23 -24 -25 28 -27 -28 -29 -30 -31
leaf_value=-0.012484687814680755 0.016304631245580566 0.25291111035140301 0.13891846598331523 0.14909580580461301 -0.03291527337859803 0.16361365852961321 -0.030084845317572963 -0.027578431544232191 -0.018574057580122136 0.076765259909774439 0.29885310423591516 0.092822100770033764 -0.0034609769095822404 0.1854526861181964 0.28252221552808809 0.14497629180379368 0.12492828753756985 -0.029899461511027479 0.14840893696386051 0.34104009856166068 0.20678088857828375 0.16471827131263708 -0.033402178298103255 0.17539249094001053 0.21355201110927188 0.075478405620690678 0.31401317687530017 0.35386022396145794 0.14009375543635266 0.12804091661898623
leaf_weight=1845.2276284648106 351.14594405703247 24.470699262805283 386.18640122748911 40159.947567087598 312.38657288253307 471.0469717476517 77.376018297858536 844.70143095497042 196.3816577186808 110.31810246407986 71.973266019485891 115.38166922330856 175.22310799639672 120.90626374911517 128.9001402342692 78.38474628329277 103.23098110407591 43.322949697263539 2880.751284327358 63.600584180094302 168.58770210295916 253.2887052372098 181.33967744652182 742.05940850451589 990.41145268362015 812.63638795912266 68.633205246180296 30.282425199635327 15338.98309300933 1193.4247473664582
leaf_count=137653 9948 304 7231 30554 14942 2650 5749 63561 13596 3270 702 4138 10374 1753 875 22 332 2560 13360 263 18 870 2863 516 6544 16755 442 242 43417 7396
internal_value=0.138281 0.0732761 0.0264204 0.142421 0.131287 0.133477 0.104278 0.0267554 0.13091 0.00725284 0.139485 0.139915 0.0922282 0.0599351 0.193677 -0.0127815 0.00648843 0.158381 0.152177 0.160123 0.122967 0.0918004 0.00168406 0.188879 0.141026 0.107924 0.197336 0.138544 0.143444 0.166903
internal_weight=68340.5 4092.54 2659.19 64248 24088 23672.4 4865.9 1244.74 3621.16 2273.01 3424.78 321.658 427.78 472.052 244.282 923.086 415.618 252.557 2952.72 1433.35 627.687 459.099 205.81 805.66 18806.5 1283.68 209.234 140.601 17522.8 2183.84
internal_count=402900 166606 161772 236294 205740 190466 113704 74345 39359 154541 25763 10762 16888 11701 5013 63583 15274 6514 14062 4834 4055 4037 3167 779 76762 19405 3954 3512 57357 13940
is_linear=0
shrinkage=0.03


Tree=5
num_leaves=31
num_cat=0
split_feature=23 0 0 0 54 0 50 0 0 43 62 43 51 58 45 51 0 61 51 33 20 6 5 42 40 26 34 33 34 65
split_gain=16478.4 21978.5 5657.98 3265.61 5253.4 3286.68 3246.6 13989 6629.4 4589.61 3593.88 3237.58 3611.35 3220.82 3154.59 2855.22 2830.96 2698.53 3137.97 1879.59 1517.77 1551.62 1406.13 1332.99 1277.67 1360.72 1231.58 1845.04 1174.64 1160.18
threshold=1.0000000180025095e-35 247.02000000000001 5.8550000000000013 24.525000000000002 1.0000000180025095e-35 20.295000000000005 0.2695290426638563 24.525000000000002 102.13500000000001 0.0052247508550124508 1.0000000180025095e-35 0.0027581346638595504 54.500000000000007 1.0000000180025095e-35 0.0065874633819129015 54.500000000000007 247.02000000000001 1.0000000180025095e-35 56.500000000000007 52.523714583333337 1.5000000000000002 48.091355500000013 1326602362.0000002 0.00077429357327335002 100.1236437817456 1.5512500000000002 1.15169607808924 8.5883340717766945 0.037182083560392105 1.0000000180025095e-35
decision_type=2 2 2 2 2 2 2 2 2 2 2 2 2 2 2 2 2 2 2 2 2 2 2 2 2 8 2 2 2 2
left_child=1 3 11 4 5 26 7 9 10 13 17 12 -2 23 -10 -12 -16 -9 -19 -17 21 22 -7 -4 25 -14 -1 -28 -8 -3
right_child=2 29 6 -5 -6 20 28 8 14 -11 15 -13 24 -15 16 19 -18 18 -20 -21 -22 -23 -24 -25 -26 -27 27 -29 -30 -31
leaf_value=-0.0089904768201751178 -0.031183371535571637 0.14445253310989331 -0.032351228716607922 -0.025125820938908101 0.20232720253246653 0.88091573000474088 0.30365363208882723 -0.024617793203136281 0.17202203328505167 -0.030331207472208941 -0.030831804066748097 -0.030400333180930193 0.1689491937082071 -0.03169873162349808 -0.030896427688171451 0.17969575925820838 0.13169238855334739 -0.031151645957832794 0.24138929308544865 0.53210720851323534 -0.029765555417484282 0.97639913701633374 0.17283647988222131 0.13821148932370331 0.25090978117880713 0.020866989132918075 -0.021781838571583334 1.1504504072005131 0.13017063203532078 -0.031278608867604342
leaf_weight=776.35737551003695 140.93784614559263 1919.2193788904697 41.106174496933818 1343.3814853690565 161.30542542506009 1.6750982683151949 34.737799410708249 1141.0495274765417 416.08279036544263 154.32452190387994 51.914763350039721 303.74623469915241 150.66064099036157 102.6844860445708 187.01784849260002 78.193091464228928 197.14629459381104 73.076605193316936 77.764826323837042 16.170802625827491 29.161711336113513 1.4214776176959265 92.970924814231694 7079.7838933616877 84.103942208923399 88.975287610664964 2.8151487987488499 1.064584016799927 59079.891891104169 34.060105776414275
leaf_count=54645 5708 3720 764 103123 29 33 94 72398 753 10659 2310 22492 486 2589 11778 1036 14 2938 404 252 1811 38 2346 14006 1043 2986 211 1 83404 714
internal_value=0.123186 0.0666093 0.126737 0.0059839 0.0451499 0.0169537 0.127642 0.111428 0.045708 0.131358 0.00717327 0.0457009 0.095411 0.134816 0.114862 0.147584 0.0526588 -0.00882469 0.109999 0.245065 0.158978 0.216019 0.194479 0.137222 0.150458 0.114295 -0.00601189 0.469104 0.130278 0.141372
internal_weight=73862.8 4363.43 69499.4 2410.15 1066.77 905.466 68730.9 9616.32 2238.42 7377.9 1438.17 768.424 464.678 7223.57 800.247 146.279 384.164 1291.89 150.841 94.3639 125.229 96.0675 94.646 7120.89 323.74 239.636 780.237 3.87973 59114.6 1953.28
internal_count=402785 166671 236114 162237 59114 59085 203399 119901 91883 28018 79338 32715 10223 17359 12545 3598 11792 75740 3342 1288 4228 2417 2379 14770 4515 3472 54857 212 83498 4434
is_linear=0
shrinkage=0.03


Tree=6
num_leaves=31
num_cat=0
split_feature=49 0 43 0 15 43 58 30 43 0 0 0 43 0 51 31 42 10 45 31 0 46 21 4 49 30 10 10 31 1
split_gain=14590.5 7587.96 30803 11187.5 11250.3 5326.18 4940.08 4753.06 3990.25 9399.88 7486.57 3808.04 3692.61 2628.82 2822.3 2559.95 1808.28 1758.02 1558.04 1518.29 1104.11 1052.14 964.572 855.534 726.717 716.924 631.485 518.183 470.483 428.903
threshold=0.12835592174147217 247.02000000000001 0.0052247508550124508 25.215000000000003 21.500000000000004 0.0017239201800185503 1.0000000180025095e-35 82.744085724509674 0.0022032494284836006 94.77500000000002 53.065000000000005 44.795000000000009 0.0017239201800185503 6.0050000000000008 54.500000000000007 1.0729259182401327 0.00074336059219080018 902.63000000000011 0.0087775384766758512 0.41938970557506178 26.645000000000003 0.044720554470333358 1.5000000000000002 2138.5000000000005 0.054651939993160058 259.6474107142858 1145.5450000000003 2010.5450000000003 0.36268790084683283 18016.000000000004
decision_type=2 2 2 2 2 2 2 2 2 2 2 2 2 2 2 2 2 2 2 2 2 2 2 2 2 2 2 2 2 2
left_child=17 2 3 6 5 7 13 -5 9 20 11 -10 -11 14 -2 -9 -15 21 -16 -18 -6 29 24 -24 26 -4 -19 -26 -23 -1
right_child=1 -3 25 4 8 -7 -8 15 10 12 -12 -13 -14 16 18 -17 19 22 -20 -21 -22 28 23 -25 27 -27 -28 -29 -30 -31
leaf_value=0.021346019341230975 -0.020873420923103965 0.11903041481674212 -0.029619638894598021 -0.030755642391166703 0.11981358814783288 -0.03076445764720951 -0.031481817718963551 -0.030030177633344816 0.0047361168105614472 0.12839071316436443 -0.031976647641166055 0.24892562060717763 -0.033509796794573096 -0.032307458453247784 0.010375270470204551 0.20552945414181317 0.12571078300116934 0.38455607213493676 0.13828704717465401 0.32921414848337699 -0.030997257586566133 0.088359663524175902 0.086264323054213651 -0.030976032620020671 -0.029472712529336552 0.11561669737687394 -0.024283067504457613 0.14706650714427649 -0.029905768152489982 -0.03041883986041145
leaf_weight=182.75283042341471 227.86489632353187 55980.861824838445 1609.7837328286842 182.44583393726498 46.413904349319637 1151.352168305777 188.89604164287448 49.946157351136208 65.793613915331662 1754.7028614822775 135.05907593201846 457.21796230133623 136.22961431276053 64.675702451728284 112.96142473164946 237.88159498013556 14336.579891989939 16.42266738880426 357.09971113223583 32.476120813749731 557.23116564378142 133.52952146623284 137.63023700751364 93.264484082348645 18.94735652487725 30.208737373352051 4.065871210768818 64.81876474712044 38.475193157792091 667.87639863230288
leaf_count=12721 10699 13737 106302 11716 852 77238 6661 3783 2252 5029 4825 762 4243 1585 5826 618 31064 80 3437 524 30676 1421 2685 4757 1032 2 219 430 2665 54944
internal_value=0.111482 0.113185 0.0981249 0.108327 0.0682035 0.00398416 0.120826 0.0889489 0.101223 0.0838249 0.166944 0.218281 0.116714 0.122729 0.065709 0.16468 0.125481 0.0139736 0.107642 0.126194 -0.0192176 -0.00558266 0.0734933 0.0389655 0.148837 -0.0268737 0.305929 0.107222 0.061868 -0.0192819
internal_weight=79073.5 77715.7 21734.8 20094.8 4774.27 1621.63 15320.6 470.274 3152.65 2494.58 658.071 523.012 1890.93 15131.7 697.926 287.828 14433.7 1357.78 470.061 14369.1 603.645 1022.63 335.149 230.895 104.255 1639.99 20.4885 83.7661 172.005 850.629
internal_count=402785 321831 308094 201790 141994 93355 59796 16117 48639 40800 7839 3014 9272 53135 19962 4401 33173 80954 9263 31588 31528 71751 9203 7442 1761 106304 299 1462 4086 67665
is_linear=0
shrinkage=0.03


Tree=7
num_leaves=31
num_cat=0
split_feature=23 31 37 50 43 34 30 53 45 58 53 10 17 34 8 42 26 31 10 34 45 9 31 33 43 76 34 10 42 31
split_gain=10948 11778.7 3944.7 3428.64 6266.38 4866.24 3501.71 3238.1 3782.98 2861.53 2725.99 1813.98 1803.97 1484.11 1326.44 2041.76 1184 1210.52 1135.21 1131.74 1072.19 1017.4 1014.03 929.316 927.903 911.566 911.26 1086.75 863.781 1215.97
threshold=1.0000000180025095e-35 3.7819921016811948 83.088278385020871 0.2695290426638563 0.0052247508550124508 0.5722717520342836 259.6474107142858 1.0000000180025095e-35 0.010298967771627051 1.0000000180025095e-35 1.0000000180025095e-35 902.63000000000011 3.5000000000000004 1.3392983768132467 1284.9900000000002 0.0026536935752681508 0.62458333333333338 0.075883644194253155 274.55000000000007 0.49054196214918561 0.0068905209561285008 28624.065000000002 0.34561038638647962 66.903575948605678 0.0052247508550124508 1.0000000180025095e-35 3.2092214031735673 3909.4300000000007 0.0055578809531872013 7.9182717966294076
decision_type=2 2 2 2 2 2 2 2 2 2 2 2 2 2 2 2 10 2 2 2 2 2 2 2 2 2 2 2 2 2
left_child=1 2 11 4 5 9 -6 8 12 10 16 -1 20 -9 15 -5 -2 -18 -10 22 -7 -4 23 -13 -25 28 -21 -28 29 -3
right_child=3 25 21 14 6 7 -8 13 18 -11 -12 19 -14 -15 -16 -17 17 -19 -20 26 -22 -23 -24 24 -26 -27 27 -29 -30 -31
leaf_value=-0.012314774688393969 0.12803178854910752 0.090449709602842543 0.10107253714750458 0.044613445266922895 -0.030391058209847964 0.10744024618677533 0.10918474670529286 -0.030634075685236146 0.0030824587342676455 -0.031551355155551283 -0.032187801338882431 -0.0068111481418265266 -0.030896055127278735 0.12678021094082212 0.10866443278841641 0.10006350039353661 0.017157698075783698 0.10461922606406716 0.13879479665905026 -0.030722128574017179 -0.011180168758947071 -0.030239439101354043 0.18722798106424085 0.18471379048885508 -0.029317497438987049 -0.031541329539154284 0.079516770089022512 0.65415806542087007 0.11085804841265375 0.2310782618878075
leaf_weight=1808.377321338281 2275.0428445655853 96.568358214572072 532.04458920098841 678.17299188859761 578.02189257461578 167.06331241689622 223.49441051483154 59.635175040923059 69.666556413285434 135.05884564388543 123.61891659721732 98.400722607970238 684.25147218350321 525.29874460212886 61719.048809652217 5196.5323081761599 146.45196332409978 5933.5664807651192 273.04367342498153 151.13003796152771 115.49008259642869 58.495612223632634 75.26787163503468 65.244189135730267 24.778528527356684 36.622169243171811 20.238144110888246 2.5584882888942948 1617.2924884241074 135.51322934776545
leaf_count=136184 2762 1152 6224 10401 46625 2903 14 3300 2646 4142 3412 3596 44851 1377 66361 18427 5155 15061 1476 9558 7201 4199 556 456 1559 713 209 11 1957 297
internal_value=0.102145 0.0577551 0.0191073 0.104801 0.0894836 0.0956504 0.00861201 0.0520738 0.0258192 0.105227 0.107409 0.000952681 -0.00456412 0.110701 0.107363 0.0936716 0.109479 0.102516 0.111305 0.055688 0.0590767 0.0880313 0.0947515 0.0570015 0.126094 0.115839 -0.00372245 0.168915 0.118774 0.173215
internal_weight=83626 4722.53 2836.54 78903.5 11309.7 10508.2 801.516 1894.45 1309.52 8613.74 8478.68 2246 966.805 584.934 67593.8 5874.71 8355.06 6080.02 342.71 437.618 282.553 590.54 263.691 188.423 90.0227 1886 173.927 22.7966 1849.37 232.082
internal_count=402785 166671 162552 236114 140925 94286 46639 63754 59077 30532 26390 152129 54955 4677 95189 28828 22978 20216 4122 15945 10104 10423 6167 5611 2015 4119 9778 220 3406 1449
is_linear=0
shrinkage=0.03


Tree=8
num_leaves=31
num_cat=0
split_feature=49 0 43 0 15 53 53 58 0 0 43 43 30 0 8 4 10 0 42 30 46 21 4 30 34 0 31 10 0 12
split_gain=10389 5959.74 23806 8043.31 8472.62 5952.17 4092.6 3727.42 2938.75 4448.21 5890 3274.33 2655.86 1577.77 1554.1 1475.13 1399.8 1122.45 1103.02 979.614 889.765 629.671 696.095 617.408 427.717 380.574 479.498 376.46 934.906 358.304
threshold=0.12835592174147217 247.02000000000001 0.0052247508550124508 25.215000000000003 21.500000000000004 1.0000000180025095e-35 1.0000000180025095e-35 1.0000000180025095e-35 44.795000000000009 53.065000000000005 0.0017239201800185503 0.0022032494284836006 82.744085724509674 6.0050000000000008 103.26000000000001 2207.0000000000005 902.63000000000011 26.645000000000003 0.00074336059219080018 56.946663754858172 0.044720554470333358 1.5000000000000002 2138.5000000000005 259.6474107142858 0.40585308742273235 24.525000000000002 0.27964922896911731 3909.4300000000007 211.52500000000003 21.97371815461111
decision_type=2 2 2 2 2 2 2 2 2 2 2 2 2 2 2 2 2 2 2 2 2 2 2 2 2 2 2 2 2 2
left_child=16 2 3 6 5 27 7 13 17 11 -11 -10 -7 15 -14 -2 20 19 -15 -6 -1 25 29 -4 -22 26 -18 -5 -29 -23
right_child=1 -3 23 4 8 12 -8 -9 9 10 -12 -13 14 18 -16 -17 21 -19 -20 -21 24 22 -24 -25 -26 -27 -28 28 -30 -31
leaf_value=-0.018930043686154488 0.09006914466241446 0.10060621310719105 -0.02971184010394062 -0.030761903731547524 0.33903584284159843 -0.031119749280559345 -0.032110017975953406 -0.031455065497405135 -0.030360432858787874 0.094544031164846262 -0.032448848472146401 0.18665088833405374 0.871538910681665 -0.032635606666776902 0.14276164531107763 -0.0013990977725646171 0.091739712014479446 -0.031355712479979848 0.10641830308630625 0.049622286377104953 0.078177094951306217 0.10783769949561893 -0.031032383139745948 0.098812872608157409 -0.030214930401523846 0.031574105201697331 0.23579319690886189 -0.0291443558148149 0.45655143543376286 0.011876501441843188
leaf_weight=825.30455810576677 491.36960972007364 62227.537225347012 1613.8437726777047 1257.2612504446879 12.062496729195116 96.537630248814821 205.0832649897784 184.31420147139579 69.809138594195247 2183.2430527992547 386.37718357052654 580.24101957213134 1.702187300659715 51.056380718946457 290.75888522248715 234.00689020380378 55.264284295961261 252.02290407754481 16084.855087984353 57.000623933970928 143.34055424295366 96.986379356123507 91.131800903007388 33.39045524597168 41.749244559556246 34.73830408602953 34.866979327984154 12.056592978537084 3.9967002319172016 55.033397667109966
leaf_count=67665 7502 13737 106302 86450 147 4945 6441 6661 4286 15625 15651 762 13 1100 1463 10079 576 11247 28013 921 1349 302 4757 2 2737 1125 60 478 6 2383
internal_value=0.0943927 0.0956974 0.0830193 0.0910948 0.0583804 0.00250278 0.100958 0.102561 0.0846048 0.0932332 0.0754426 0.163331 0.105056 0.104028 0.149969 0.060596 0.0126697 -0.00192786 0.105976 0.104331 -0.00558587 0.0626774 0.0342944 -0.0270464 0.0536809 0.117211 0.149475 -0.0288828 0.111282 0.0734226
internal_weight=87706.9 86328.5 24101 22453.8 5203.07 1662.31 17250.7 17045.6 3540.76 3219.67 2569.62 650.05 388.999 16861.3 292.461 725.376 1378.42 321.086 16135.9 69.0631 1010.39 368.021 243.152 1647.23 185.09 124.87 90.1313 1273.31 16.0533 152.02
internal_count=402785 321831 308094 201790 141994 93355 59796 53355 48639 36324 31276 5048 6421 46694 1476 17581 80954 12315 29113 1068 71751 9203 7442 106304 4086 1761 636 86934 484 2685
is_linear=0
shrinkage=0.03


Tree=9
num_leaves=31
num_cat=0
split_feature=0 43 0 15 73 73 58 45 62 0 0 30 0 42 31 4 8 45 58 0 42 0 0 8 50 45 36 56 0 43
split_gain=8146.3 23108 10661.4 8351.06 5831.34 4070.58 3848.75 3043.4 3227.97 3447.13 3194.05 2515.42 1954.29 1866.1 1865.14 1352.45 1152.42 1148.45 1086.43 1063.26 1050.27 948.97 923.227 897.315 884.133 877.728 608.877 326.805 2847.02 14623.1
threshold=230.71500000000003 0.0052247508550124508 25.215000000000003 21.500000000000004 1.0000000180025095e-35 1.0000000180025095e-35 1.0000000180025095e-35 0.0068905209561285008 1.0000000180025095e-35 181.54000000000005 52.535000000000004 82.744085724509674 6.0050000000000008 0.0023224329856500006 0.66893930848933891 2800.0000000000005 1635.1650000000002 0.0073229187888383509 1.0000000180025095e-35 47.965000000000011 0.00074336059219080018 150.04500000000004 26.645000000000003 1748.1200000000001 0.37927875365607944 0.0065874633819129015 0.28685161530963771 1.0000000180025095e-35 612.23000000000013 0.0022032494284836006
decision_type=2 2 2 2 2 2 2 2 2 2 2 2 2 2 2 2 2 2 2 2 2 2 2 2 2 2 2 2 2 2
left_child=1 2 5 4 -4 6 12 19 9 22 14 -6 15 24 -10 17 -15 -1 -11 -5 -14 26 -9 -22 -13 -17 -21 28 29 -2
right_child=27 -3 3 7 11 -7 -8 8 10 18 -12 13 20 16 -16 25 -18 -19 -20 21 23 -23 -24 -25 -26 -27 -28 -29 -30 -31
leaf_value=-0.03067118243200101 0.095446348074750137 -0.03080241120411191 -0.029180935947315714 -0.031024663155222548 -0.030941928372429459 -0.031860080351224285 -0.031297069346026968 0.09538150855598837 0.00442898980005827 -0.035120842843176285 -0.031905020068816813 0.10237432828845457 -0.032387709922625282 0.72017303853570891 0.17966580986253211 0.15707353626180851 0.24667680858669938 0.091046794970096906 0.10537149284598936 0.091498409294334337 0.084992839509755044 -0.035223475909649048 -0.031531374447158853 0.10143532346061301 0.54064110941918997 -0.030820338821210037 0.12984064955990893 0.096842392820220308 0.094889902735237078 -0.032937435466647194
leaf_weight=80.450988828204572 4246.2676829928532 1773.2299096491188 1636.6024799719453 50.869236485101283 114.81387115456164 234.88594537973404 218.61904340796173 54.889982505701482 65.975251287221909 56.868119469843805 111.82982056774199 319.33163328561932 55.527744530700147 5.4557330291718271 320.30811353120953 24.021954327821732 24.972564985975623 502.40537695214152 360.74246658943594 731.7951292488724 3901.3382520005107 40.242126206867397 672.66650998219848 13446.575048292987 3.2631361186504355 210.71621528733522 795.50804006960243 20073.125017976388 40103.124352622777 982.76673652138561
leaf_count=4512 1870 128514 121430 2042 6813 8860 9361 731 2023 696 3984 2537 1462 96 632 5 277 6165 279 2951 12776 555 33718 23465 3 11757 1919 1673 4523 7156
internal_value=0.0879727 0.0736935 0.0814021 0.0441197 -0.00247295 0.0921122 0.0936932 0.0741736 0.0453688 0.0175988 0.109043 0.0908144 0.0951946 0.130397 0.149833 0.049765 0.351883 0.0742173 0.0861946 0.103373 0.0973257 0.107753 -0.0218346 0.0977429 0.108474 -0.0109947 0.111543 0.093607 0.0921723 0.0713151
internal_weight=91219.2 25813.9 24040.7 5366.13 2104.44 18674.5 18439.7 3261.69 1643.28 1145.17 498.113 467.837 18221 353.023 386.283 817.595 30.4283 582.856 417.611 1618.41 17403.4 1567.55 727.556 17347.9 322.595 234.738 1527.3 65405.3 45332.2 5229.03
internal_count=402785 387563 259049 180686 131156 78363 69503 49530 42063 35424 6639 9726 60142 2913 2655 22439 373 10677 975 7467 37703 5425 34449 36241 2540 11762 4870 15222 13549 9026
is_linear=0
shrinkage=0.03


Tree=10
num_leaves=31
num_cat=0
split_feature=0 43 0 0 43 51 0 0 58 0 51 68 0 26 30 30 34 8 0 30 10 61 34 42 0 38 50 1 33 34
split_gain=6972.94 20652.1 8644.95 6200.54 5040.04 4835.23 4428.99 4270.83 3181.18 2346.95 1721.86 1528.54 1478.27 1339.08 1325.48 1498.6 2269.11 1430.24 1345.08 1320.64 1219.54 2283.88 1202.71 1172.56 3405.98 1038.18 651.642 556.796 541.522 529.794
threshold=230.71500000000003 0.0052247508550124508 24.525000000000002 99.845000000000013 0.0017239201800185503 54.500000000000007 53.565000000000005 45.855000000000011 1.0000000180025095e-35 5.3950000000000005 55.500000000000007 1.0000000180025095e-35 26.645000000000003 0.84319444444444458 82.744085724509674 84.839869926413428 3.4353703039135222 1817.8200000000002 117.83000000000001 78.743721875800034 863.5150000000001 1.0000000180025095e-35 3.0339514172682689 0.0019802679047588503 16.125000000000004 55.343888106353965 0.36780429218077676 2405.0000000000005 96.095588851216618 0.50153825461324664
decision_type=2 2 2 2 2 2 2 2 2 2 2 2 2 8 2 2 2 2 2 2 2 2 2 2 2 2 2 2 2 2
left_child=1 2 8 5 14 12 7 -7 9 10 -1 -9 25 -12 17 16 -16 -5 -17 23 21 -21 -14 24 -11 29 -15 -19 -25 -4
right_child=-2 -3 3 4 -6 6 -8 11 -10 19 13 -13 22 26 15 18 -18 27 -20 20 -22 -23 -24 28 -26 -27 -28 -29 -30 -31
leaf_value=-0.030926720118516247 0.087896073872481717 -0.030778603297040963 0.17805960300995913 -0.033510918354183294 -0.032124579319389217 -0.014302166264186279 -0.025432226747724031 -0.029848800772746764 -0.03123470036798541 0.017662665686204931 0.12916931919945618 0.13431604048691528 -0.0309051713135634 -0.0060222330334549819 -0.030512910336644522 0.18007996143343435 0.68620026474695928 0.25895850692761913 0.097061826586787567 0.10562961184974802 0.089017522801641297 0.18923062297906135 0.12927440407989876 0.087826605062247196 0.091122967162752491 -0.031774480276823905 0.11847880435728861 0.08157408975687945 0.15890357375845551 -0.029258628860798698
leaf_weight=246.20737876556814 67405.275354927406 1719.6246984163299 67.166929190978408 100.9786142539233 314.91930330451578 272.61449608486146 432.81393269263208 54.410212910734117 204.71162028145045 873.32803229056299 183.97163868695498 745.22128914855421 1516.8116684565321 179.19951414130628 6.4030455267056796 230.73853387776762 9.11304035410285 15.429066752083598 761.39077006746083 2291.8189593292773 3331.2009430024773 339.06123609188944 42.416635827161372 9866.9265819471329 1627.6173057658598 47.144446525722742 46.92130443546921 1019.0993996933103 98.114356698468328 12.912826788611708
leaf_count=13240 15366 128429 464 2957 15144 16259 31317 4447 9087 13659 880 3050 99598 7946 148 673 6 56 1301 3660 1843 990 122 18368 6018 1536 798 4835 533 552
internal_value=0.0827572 0.0697608 0.0766945 0.0440441 0.0798469 0.0164519 0.0555226 0.0881963 0.0862545 0.0875165 0.0317006 0.123119 -0.018427 0.0692913 0.0963089 0.121398 0.406312 0.0739553 0.116534 0.0895024 0.101151 0.116473 -0.0264657 0.0839235 0.0654892 0.0795087 0.0202071 0.08447 0.0885426 0.144644
internal_weight=94063.6 26658.3 24938.7 5649.58 2458.07 3191.51 1505.06 1072.25 19289.1 19084.4 656.3 799.632 1686.45 410.092 2143.15 1007.65 15.5161 1135.51 992.129 18428.1 5962.08 2630.88 1559.23 12466 2500.95 127.224 226.121 1034.53 9965.04 80.0798
internal_count=403282 387916 259487 182465 25120 157345 55073 23756 77022 67935 22864 7497 102272 9624 9976 2128 154 7848 1974 45071 6493 4650 99720 38578 19677 2552 8744 4891 18901 1016
is_linear=0
shrinkage=0.03


end of trees

feature_importances:
amt=65
category_fraud_rate=30
amt_diff_from_avg=23
amt_month_shopping_net_spend=21
night_category_risk=16
avg_amt_by_cc=14
amt_diff_from_category_avg=14
merchant_fraud_rate=14
time_since_last_tx=13
age=10
category_home=8
category_food_dining=7
city_pop=6
hour=6
avg_amt_by_cc_category=6
distance_high_risk_hour=6
amt_month=5
is_high_risk_hour=5
count_month_shopping_net=4
high_value_category_tx=4
first_time_tx_ratio=4
risk_score=4
night_risk_score=4
category_gas_transport=4
category_personal_care=4
zip=3
category_kids_pets=3
category_misc_pos=3
category_travel=3
category_simplified_travel=3
day_of_week=2
avg_amt_repeated=2
category_grocery_pos=2
category_simplified_food=2
unix_time=1
merch_lat=1
merch_long=1
amt_year=1
dist_between_client_and_merch=1
times_shopped_at_merchant=1
times_shopped_at_merchant_day=1
avg_amt_first_time=1
city_distance=1
day_part_noche=1

parameters:
[boosting: gbdt]
[objective: binary]
[metric: binary_logloss]
[tree_learner: serial]
[device_type: cpu]
[data_sample_strategy: bagging]
[data: ]
[valid: ]
[num_iterations: 1000]
[learning_rate: 0.03]
[num_leaves: 31]
[num_threads: 0]
[seed: 0]
[deterministic: 0]
[force_col_wise: 0]
[force_row_wise: 0]
[histogram_pool_size: -1]
[max_depth: 8]
[min_data_in_leaf: 20]
[min_sum_hessian_in_leaf: 0.001]
[bagging_fraction: 0.8]
[pos_bagging_fraction: 1]
[neg_bagging_fraction: 1]
[bagging_freq: 5]
[bagging_seed: 3]
[bagging_by_query: 0]
[feature_fraction: 0.85]
[feature_fraction_bynode: 1]
[feature_fraction_seed: 2]
[extra_trees: 0]
[extra_seed: 6]
[early_stopping_round: 0]
[early_stopping_min_delta: 0]
[first_metric_only: 0]
[max_delta_step: 0]
[lambda_l1: 0.1]
[lambda_l2: 1]
[linear_lambda: 0]
[min_gain_to_split: 0]
[drop_rate: 0.1]
[max_drop: 50]
[skip_drop: 0.5]
[xgboost_dart_mode: 0]
[uniform_drop: 0]
[drop_seed: 4]
[top_rate: 0.2]
[other_rate: 0.1]
[min_data_per_group: 100]
[max_cat_threshold: 32]
[cat_l2: 10]
[cat_smooth: 10]
[max_cat_to_onehot: 4]
[top_k: 20]
[monotone_constraints: ]
[monotone_constraints_method: basic]
[monotone_penalty: 0]
[feature_contri: ]
[forcedsplits_filename: ]
[refit_decay_rate: 0.9]
[cegb_tradeoff: 1]
[cegb_penalty_split: 0]
[cegb_penalty_feature_lazy: ]
[cegb_penalty_feature_coupled: ]
[path_smooth: 0]
[interaction_constraints: ]
[verbosity: -1]
[saved_feature_importance_type: 0]
[use_quantized_grad: 0]
[num_grad_quant_bins: 4]
[quant_train_renew_leaf: 0]
[stochastic_rounding: 1]
[linear_tree: 0]
[max_bin: 255]
[max_bin_by_feature: ]
[min_data_in_bin: 3]
[bin_construct_sample_cnt: 200000]
[data_random_seed: 1]
[is_enable_sparse: 1]
[enable_bundle: 1]
[use_missing: 1]
[zero_as_missing: 0]
[feature_pre_filter: 1]
[pre_partition: 0]
[two_round: 0]
[header: 0]
[label_column: ]
[weight_column: ]
[group_column: ]
[ignore_column: ]
[categorical_feature: ]
[forcedbins_filename: ]
[precise_float_parser: 0]
[parser_config_file: ]
[objective_seed: 5]
[num_class: 1]
[is_unbalance: 0]
[scale_pos_weight: 80.3525]
[sigmoid: 1]
[boost_from_average: 1]
[reg_sqrt: 0]
[alpha: 0.9]
[fair_c: 1]
[poisson_max_delta_step: 0.7]
[tweedie_variance_power: 1.5]
[lambdarank_truncation_level: 30]
[lambdarank_norm: 1]
[label_gain: ]
[lambdarank_position_bias_regularization: 0]
[eval_at: ]
[multi_error_top_k: 1]
[auc_mu_weights: ]
[num_machines: 1]
[local_listen_port: 12400]
[time_out: 120]
[machine_list_filename: ]
[machines: ]
[gpu_platform_id: -1]
[gpu_device_id: -1]
[gpu_use_dp: 0]
[num_gpu: 1]

end of parameters

pandas_categorical:[]
